{"weights": [[-0.059078229241331943, 0.13152758765197897, -0.33655163530326426, -0.1013412156526776, 0.1676694687178985, -0.0028129310619971807, 0.3610047961984783, -0.34613038612120867, -0.3936837051510274, -0.09307677661464347, 0.01075761779449145, -0.15932361331718461, 0.4018207895703711], [-0.04733860431611898, 0.3919417650050592, 0.5126964471232173, -0.619802698597066, 0.17232892278270606, -0.34484719778434936, -0.583338571320763, 0.23284167124466856, 0.24085633408566295, -0.21548564571836026, -0.06981727171484743, -0.0017223191869391698, -0.3555403848759899], [-0.24785460089985328, -0.607429360517933, 0.21868066362557437, 0.04073092028387064, 0.08946784816779976, 0.4735212141794099, 0.34454506948363284, -0.16832721369148598, -0.1956887996807278, -0.2679961040384464, -0.15319236286762825, 0.521159873377498, -0.2842363862529859], [0.08903683234637048, -0.24805854757160858, -0.34117826443177857, 0.4150173473086332, -0.5461029426769197, -0.183248420776825, -0.24733179560478363, 0.14584318523576112, 0.21340441197911925, 0.3262076638629833, 0.040773735554880244, -0.28970423351522495, -0.15103727213091464]], "biases": [0.0029524776914596528, -0.023028229106513875, -0.05947782809477356, 0.016965463380564236]}