{"weights": [[0.001162507037623601, 0.1141340140936234, -0.17447770066553145, -0.09531717879452793, 0.07323465949172228, -0.039597029748179635, 0.17717741493364755, -0.2183151038121627, -0.2403954922340824, -0.07672584924848169, 0.002308412910238388, -0.13235884946871238, 0.23612239637610247], [-0.03773707466758829, 0.21806339469453767, 0.23451294795933514, -0.3151562189599499, 0.08694472235910276, -0.16721801890418558, -0.3044734930648192, 0.11636137553766866, 0.12188270378210975, -0.10807437286706795, -0.035404223665620044, -0.018768721823727283, -0.16231161429360078], [-0.14721948473731183, -0.3446962160523154, 0.09440722938216835, 0.07582225930859793, 0.018938654576571262, 0.25311307707412384, 0.1589285410281804, -0.07645516687142072, -0.08612065179774046, -0.1276090637462056, -0.10825365348038586, 0.2664189058280144, -0.1378700587228574], [0.025205603555935138, -0.15979506222003045, -0.18984945751987573, 0.20836682291199315, -0.2890461175317996, -0.0877194697194196, -0.13092396484259822, 0.07725558852197509, 0.09412303362993275, 0.16070305656192885, 0.019587307991061852, -0.13665834450842088, -0.11105222579646284]], "biases": [0.0018491189449400991, -0.009605111516174243, -0.027333036073780462, 0.004862639750112318]}